net
{
	jenginegenerator6060830225489488864L = "edu.ucla.belief.inference.JoinTreeSettings@1913209";
}

node HearableBarking
{
	states = ("Yes" "No" );
	position = (709 -446);
	ismapvariable = "false";
	label = "HearableBarking";
	diagnosistype = "AUXILIARY";
	excludepolicy = "include whole CPT";
}
node SoundSensorHealth
{
	states = ("OK" "Broken" );
	position = (550 -433);
	ismapvariable = "false";
	label = "SoundSensorHealth";
	diagnosistype = "AUXILIARY";
	excludepolicy = "include whole CPT";
}
node LightSensorHealth
{
	states = ("OK" "Broken" );
	position = (202 -443);
	ismapvariable = "false";
	label = "LightSensorHealth";
	diagnosistype = "AUXILIARY";
	excludepolicy = "include whole CPT";
}
node SoundSensor
{
	states = ("On" "Off" );
	position = (450 -625);
	ismapvariable = "true";
	label = "SoundSensor";
	diagnosistype = "AUXILIARY";
	excludepolicy = "include whole CPT";
}
node ExpectingGuests
{
	states = ("Yes" "No" );
	position = (423 -102);
	ismapvariable = "false";
	label = "ExpectingGuests";
	diagnosistype = "AUXILIARY";
	excludepolicy = "include whole CPT";
}
node DogOutside
{
	states = ("Yes" "No" );
	position = (675 -273);
	ismapvariable = "false";
	label = "DogOutside";
	diagnosistype = "AUXILIARY";
	excludepolicy = "include whole CPT";
}
node DogBarking
{
	states = ("Yes" "No" );
	position = (689 -356);
	ismapvariable = "false";
	label = "DogBarking";
	diagnosistype = "AUXILIARY";
	excludepolicy = "include whole CPT";
}
node Battery
{
	states = ("OK" "Dead" );
	position = (412 -432);
	ismapvariable = "false";
	label = "Battery";
	diagnosistype = "AUXILIARY";
	excludepolicy = "include whole CPT";
}
node OutdoorLight
{
	states = ("On" "Off" );
	position = (301 -302);
	ismapvariable = "false";
	label = "OutdoorLight";
	diagnosistype = "AUXILIARY";
	excludepolicy = "include whole CPT";
}
node FamilyHome
{
	states = ("Yes" "No" );
	position = (590 -197);
	ismapvariable = "false";
	label = "FamilyHome";
	diagnosistype = "AUXILIARY";
	excludepolicy = "include whole CPT";
}
node LightSensor
{
	states = ("On" "Off" );
	position = (312 -619);
	ismapvariable = "true";
	label = "LightSensor";
	diagnosistype = "AUXILIARY";
	excludepolicy = "include whole CPT";
}
node DogBowelTrouble
{
	states = ("Yes" "No" );
	position = (831 -133);
	ismapvariable = "false";
	label = "DogBowelTrouble";
	diagnosistype = "AUXILIARY";
	excludepolicy = "include whole CPT";
}
potential ( HearableBarking | DogBarking )
{
	data = ((	0.8832747673661684	0.11672523263383164	)
		(	0.07862094047473302	0.921379059525267	));
}
potential ( SoundSensorHealth | )
{
	data = (	0.9365751643954379	0.06342483560456216	);
}
potential ( LightSensorHealth | )
{
	data = (	0.9904298240881082	0.009570175911891805	);
}
potential ( SoundSensor | SoundSensorHealth Battery HearableBarking )
{
	data = ((((	0.9992029626537978	7.970373462022266E-4	)
		(	2.6785703738479186E-4	0.9997321429626153	))
		((	0.007264247794091842	0.9927357522059082	)
		(	7.545669436842121E-4	0.9992454330563157	)))
		(((	0.1616755406374694	0.8383244593625306	)
		(	0.02393540616533626	0.9760645938346637	))
		((	2.588559475446743E-7	0.9999997411440524	)
		(	2.706918941866606E-9	0.9999999972930811	))));
}
potential ( ExpectingGuests | )
{
	data = (	0.13080488741394622	0.8691951125860538	);
}
potential ( DogOutside | DogBowelTrouble FamilyHome )
{
	data = (((	0.9064358545035434	0.09356414549645663	)
		(	0.952002052277204	0.04799794772279598	))
		((	0.031530287251936504	0.9684697127480636	)
		(	0.8975119395322817	0.10248806046771836	)));
}
potential ( DogBarking | DogOutside )
{
	data = ((	0.5038543298955053	0.49614567010449473	)
		(	0.48265561608054514	0.5173443839194548	));
}
potential ( Battery | )
{
	data = (	0.9908610273150087	0.009138972684991272	);
}
potential ( OutdoorLight | FamilyHome ExpectingGuests )
{
	data = (((	0.9475300108657997	0.05246998913420029	)
		(	0.1982070457555255	0.8017929542444745	))
		((	0.9632178550352054	0.03678214496479458	)
		(	0.949907737779283	0.050092262220717054	)));
}
potential ( FamilyHome | ExpectingGuests )
{
	data = ((	0.9529804796050256	0.04701952039497439	)
		(	0.20889652893972782	0.7911034710602721	));
}
potential ( LightSensor | LightSensorHealth Battery OutdoorLight )
{
	data = ((((	0.9992629116260202	7.370883739797366E-4	)
		(	8.4641891345703E-4	0.999153581086543	))
		((	0.007960652186494542	0.9920393478135054	)
		(	3.50146245633532E-4	0.9996498537543664	)))
		(((	0.18953882183251175	0.8104611781674882	)
		(	3.131929406507902E-4	0.9996868070593492	))
		((	9.402776211342129E-4	0.9990597223788659	)
		(	0.0	1.0	))));
}
potential ( DogBowelTrouble | )
{
	data = (	0.79685160976036	0.20314839023964001	);
}
